<?xml version="1.0"?>
<opencv_storage>
<haar type_id="opencv-haar-classifier">
  <size>
    30 30</size>
  <stages>
    <_>
      <!-- stage 0 -->
      <trees>
        <_>
          <!-- tree 0 -->
          <_>
            <!-- root node -->
            <feature>
              <rects>
                <_>
                  6 4 3 14 -1.</_>
                <_>
                  6 11 3 7 2.</_></rects>
              <tilted>0</tilted></feature>
            <threshold>8.2120243459939957e-03</threshold>
            <left_val>-9.4495421648025513e-01</left_val>
            <right_val>9.8095601797103882e-01</right_val></_></_>
        <_>
          <!-- tree 1 -->
          <_>
            <!-- root node -->
            <feature>
              <rects>
                <_>
                  12 13 6 12 -1.</_>
                <_>
                  12 19 6 6 2.</_></rects>
              <tilted>0</tilted></feature>
            <threshold>7.9880356788635254e-03</threshold>
            <left_val>-1.</left_val>
            <right_val>8.6066257953643799e-01</right_val></_></_></trees>
      <stage_threshold>-8.4291577339172363e-02</stage_threshold>
      <parent>-1</parent>
      <next>-1</next></_>
    <_>
      <!-- stage 1 -->
      <trees>
        <_>
          <!-- tree 0 -->
          <_>
            <!-- root node -->
            <feature>
              <rects>
                <_>
                  1 15 12 1 -1.</_>
                <_>
                  5 15 4 1 3.</_></rects>
              <tilted>0</tilted></feature>
            <threshold>3.8942398969084024e-03</threshold>
            <left_val>-9.2727267742156982e-01</left_val>
            <right_val>9.8077291250228882e-01</right_val></_></_>
        <_>
          <!-- tree 1 -->
          <_>
            <!-- root node -->
            <feature>
              <rects>
                <_>
                  9 20 12 2 -1.</_>
                <_>
                  13 20 4 2 3.</_></rects>
              <tilted>0</tilted></feature>
            <threshold>2.8538790065795183e-03</threshold>
            <left_val>-9.9567759037017822e-01</left_val>
            <right_val>8.7714207172393799e-01</right_val></_></_>
        <_>
          <!-- tree 2 -->
          <_>
            <!-- root node -->
            <feature>
              <rects>
                <_>
                  6 7 3 10 -1.</_>
                <_>
                  6 12 3 5 2.</_></rects>
              <tilted>0</tilted></feature>
            <threshold>1.5328070148825645e-03</threshold>
            <left_val>-1.</left_val>
            <right_val>9.9997872114181519e-01</right_val></_></_>
        <_>
          <!-- tree 3 -->
          <_>
            <!-- root node -->
            <feature>
              <rects>
                <_>
                  28 0 2 1 -1.</_>
                <_>
                  28 0 1 1 2.</_></rects>
              <tilted>0</tilted></feature>
            <threshold>0.</threshold>
            <left_val>0.</left_val>
            <right_val>-1.</right_val></_></_>
        <_>
          <!-- tree 4 -->
          <_>
            <!-- root node -->
            <feature>
              <rects>
                <_>
                  12 25 6 2 -1.</_>
                <_>
                  12 26 6 1 2.</_></rects>
              <tilted>0</tilted></feature>
            <threshold>-9.7538041882216930e-04</threshold>
            <left_val>1.</left_val>
            <right_val>-1.</right_val></_></_>
        <_>
          <!-- tree 5 -->
          <_>
            <!-- root node -->
            <feature>
              <rects>
                <_>
                  11 8 16 4 -1.</_>
                <_>
                  19 8 8 2 2.</_>
                <_>
                  11 10 8 2 2.</_></rects>
              <tilted>0</tilted></feature>
            <threshold>-4.9013509851647541e-05</threshold>
            <left_val>8.0480670928955078e-01</left_val>
            <right_val>-9.8015201091766357e-01</right_val></_></_>
        <_>
          <!-- tree 6 -->
          <_>
            <!-- root node -->
            <feature>
              <rects>
                <_>
                  9 12 2 5 -1.</_>
                <_>
                  10 12 1 5 2.</_></rects>
              <tilted>0</tilted></feature>
            <threshold>-7.1395077975466847e-04</threshold>
            <left_val>1.</left_val>
            <right_val>-9.9449509382247925e-01</right_val></_></_></trees>
      <stage_threshold>4.9220919609069824e-03</stage_threshold>
      <parent>0</parent>
      <next>-1</next></_>
    <_>
      <!-- stage 2 -->
      <trees>
        <_>
          <!-- tree 0 -->
          <_>
            <!-- root node -->
            <feature>
              <rects>
                <_>
                  5 23 10 2 -1.</_>
                <_>
                  10 23 5 2 2.</_></rects>
              <tilted>0</tilted></feature>
            <threshold>1.0028550401329994e-02</threshold>
            <left_val>-8.0180180072784424e-01</left_val>
            <right_val>8.6408090591430664e-01</right_val></_></_>
        <_>
          <!-- tree 1 -->
          <_>
            <!-- root node -->
            <feature>
              <rects>
                <_>
                  12 3 10 9 -1.</_>
                <_>
                  12 3 5 9 2.</_></rects>
              <tilted>0</tilted></feature>
            <threshold>-4.3402728624641895e-03</threshold>
            <left_val>-9.6589457988739014e-01</left_val>
            <right_val>2.6926338672637939e-01</right_val></_></_>
        <_>
          <!-- tree 2 -->
          <_>
            <!-- root node -->
            <feature>
              <rects>
                <_>
                  8 3 10 9 -1.</_>
                <_>
                  13 3 5 9 2.</_></rects>
              <tilted>0</tilted></feature>
            <threshold>5.4205558262765408e-04</threshold>
            <left_val>-1.</left_val>
            <right_val>5.5219018459320068e-01</right_val></_></_></trees>
      <stage_threshold>1.9651830196380615e-02</stage_threshold>
      <parent>1</parent>
      <next>-1</next></_>
    <_>
      <!-- stage 3 -->
      <trees>
        <_>
          <!-- tree 0 -->
          <_>
            <!-- root node -->
            <feature>
              <rects>
                <_>
                  2 12 6 12 -1.</_>
                <_>
                  5 12 3 12 2.</_></rects>
              <tilted>0</tilted></feature>
            <threshold>3.0496869236230850e-02</threshold>
            <left_val>-7.3913037776947021e-01</left_val>
            <right_val>8.5858917236328125e-01</right_val></_></_>
        <_>
          <!-- tree 1 -->
          <_>
            <!-- root node -->
            <feature>
              <rects>
                <_>
                  12 4 8 6 -1.</_>
                <_>
                  12 6 8 2 3.</_></rects>
              <tilted>0</tilted></feature>
            <threshold>1.1104539968073368e-02</threshold>
            <left_val>-7.0397478342056274e-01</left_val>
            <right_val>7.5201052427291870e-01</right_val></_></_>
        <_>
          <!-- tree 2 -->
          <_>
            <!-- root node -->
            <feature>
              <rects>
                <_>
                  4 14 16 11 -1.</_>
                <_>
                  12 14 8 11 2.</_></rects>
              <tilted>0</tilted></feature>
            <threshold>-1.7244640737771988e-02</threshold>
            <left_val>-9.5738238096237183e-01</left_val>
            <right_val>4.4564950466156006e-01</right_val></_></_>
        <_>
          <!-- tree 3 -->
          <_>
            <!-- root node -->
            <feature>
              <rects>
                <_>
                  7 19 16 2 -1.</_>
                <_>
                  7 19 8 2 2.</_></rects>
              <tilted>0</tilted></feature>
            <threshold>1.6788189532235265e-03</threshold>
            <left_val>-9.9049407243728638e-01</left_val>
            <right_val>4.4449770450592041e-01</right_val></_></_></trees>
      <stage_threshold>-5.5295801162719727e-01</stage_threshold>
      <parent>2</parent>
      <next>-1</next></_>
    <_>
      <!-- stage 4 -->
      <trees>
        <_>
          <!-- tree 0 -->
          <_>
            <!-- root node -->
            <feature>
              <rects>
                <_>
                  3 11 9 7 -1.</_>
                <_>
                  6 11 3 7 3.</_></rects>
              <tilted>0</tilted></feature>
            <threshold>4.0270559489727020e-02</threshold>
            <left_val>-6.4999997615814209e-01</left_val>
            <right_val>8.2979071140289307e-01</right_val></_></_>
        <_>
          <!-- tree 1 -->
          <_>
            <!-- root node -->
            <feature>
              <rects>
                <_>
                  11 20 8 2 -1.</_>
                <_>
                  11 21 8 1 2.</_></rects>
              <tilted>0</tilted></feature>
            <threshold>3.3398350933566689e-04</threshold>
            <left_val>-9.8113691806793213e-01</left_val>
            <right_val>5.2286392450332642e-01</right_val></_></_></trees>
      <stage_threshold>-1.5134610235691071e-01</stage_threshold>
      <parent>3</parent>
      <next>-1</next></_>
    <_>
      <!-- stage 5 -->
      <trees>
        <_>
          <!-- tree 0 -->
          <_>
            <!-- root node -->
            <feature>
              <rects>
                <_>
                  3 14 9 8 -1.</_>
                <_>
                  6 14 3 8 3.</_></rects>
              <tilted>0</tilted></feature>
            <threshold>4.2984779924154282e-02</threshold>
            <left_val>-6.3025212287902832e-01</left_val>
            <right_val>7.8947687149047852e-01</right_val></_></_>
        <_>
          <!-- tree 1 -->
          <_>
            <!-- root node -->
            <feature>
              <rects>
                <_>
                  21 16 7 3 -1.</_>
                <_>
                  21 17 7 1 3.</_></rects>
              <tilted>0</tilted></feature>
            <threshold>-2.5896591250784695e-04</threshold>
            <left_val>-6.0483109951019287e-01</left_val>
            <right_val>3.2442408800125122e-01</right_val></_></_>
        <_>
          <!-- tree 2 -->
          <_>
            <!-- root node -->
            <feature>
              <rects>
                <_>
                  4 6 10 6 -1.</_>
                <_>
                  4 6 5 3 2.</_>
                <_>
                  9 9 5 3 2.</_></rects>
              <tilted>0</tilted></feature>
            <threshold>-1.9146120175719261e-02</threshold>
            <left_val>8.3424782752990723e-01</left_val>
            <right_val>-5.7364922761917114e-01</right_val></_></_>
        <_>
          <!-- tree 3 -->
          <_>
            <!-- root node -->
            <feature>
              <rects>
                <_>
                  24 16 1 3 -1.</_>
                <_>
                  24 17 1 1 3.</_></rects>
              <tilted>0</tilted></feature>
            <threshold>2.0904540724586695e-04</threshold>
            <left_val>2.6480740308761597e-01</left_val>
            <right_val>-9.4170987606048584e-01</right_val></_></_></trees>
      <stage_threshold>-6.1466979980468750e-01</stage_threshold>
      <parent>4</parent>
      <next>-1</next></_>
    <_>
      <!-- stage 6 -->
      <trees>
        <_>
          <!-- tree 0 -->
          <_>
            <!-- root node -->
            <feature>
              <rects>
                <_>
                  11 24 8 6 -1.</_>
                <_>
                  11 27 8 3 2.</_></rects>
              <tilted>0</tilted></feature>
            <threshold>-3.0300229787826538e-02</threshold>
            <left_val>8.8505738973617554e-01</left_val>
            <right_val>-6.0630112886428833e-01</right_val></_></_>
        <_>
          <!-- tree 1 -->
          <_>
            <!-- root node -->
            <feature>
              <rects>
                <_>
                  20 14 4 4 -1.</_>
                <_>
                  22 14 2 2 2.</_>
                <_>
                  20 16 2 2 2.</_></rects>
              <tilted>0</tilted></feature>
            <threshold>9.2237867647781968e-04</threshold>
            <left_val>2.1219439804553986e-01</left_val>
            <right_val>-3.0238410830497742e-01</right_val></_></_>
        <_>
          <!-- tree 2 -->
          <_>
            <!-- root node -->
            <feature>
              <rects>
                <_>
                  12 9 4 3 -1.</_>
                <_>
                  14 9 2 3 2.</_></rects>
              <tilted>0</tilted></feature>
            <threshold>1.4530429616570473e-03</threshold>
            <left_val>-7.5875240564346313e-01</left_val>
            <right_val>5.9656608104705811e-01</right_val></_></_>
        <_>
          <!-- tree 3 -->
          <_>
            <!-- root node -->
            <feature>
              <rects>
                <_>
                  20 14 4 4 -1.</_>
                <_>
                  22 14 2 2 2.</_>
                <_>
                  20 16 2 2 2.</_></rects>
              <tilted>0</tilted></feature>
            <threshold>-2.2440149914473295e-03</threshold>
            <left_val>-7.4952882528305054e-01</left_val>
            <right_val>4.5389518141746521e-02</right_val></_></_>
        <_>
          <!-- tree 4 -->
          <_>
            <!-- root node -->
            <feature>
              <rects>
                <_>
                  6 14 4 4 -1.</_>
                <_>
                  6 14 2 2 2.</_>
                <_>
                  8 16 2 2 2.</_></rects>
              <tilted>0</tilted></feature>
            <threshold>2.2226260625757277e-04</threshold>
            <left_val>6.0988867282867432e-01</left_val>
            <right_val>-8.5361701250076294e-01</right_val></_></_></trees>
      <stage_threshold>-1.1203470230102539e+00</stage_threshold>
      <parent>5</parent>
      <next>-1</next></_>
    <_>
      <!-- stage 7 -->
      <trees>
        <_>
          <!-- tree 0 -->
          <_>
            <!-- root node -->
            <feature>
              <rects>
                <_>
                  10 18 9 2 -1.</_>
                <_>
                  13 18 3 2 3.</_></rects>
              <tilted>0</tilted></feature>
            <threshold>1.0493310168385506e-02</threshold>
            <left_val>-6.0655742883682251e-01</left_val>
            <right_val>8.0435121059417725e-01</right_val></_></_>
        <_>
          <!-- tree 1 -->
          <_>
            <!-- root node -->
            <feature>
              <rects>
                <_>
                  15 2 3 6 -1.</_>
                <_>
                  16 2 1 6 3.</_></rects>
              <tilted>0</tilted></feature>
            <threshold>-5.2829878404736519e-04</threshold>
            <left_val>-1.</left_val>
            <right_val>3.0310869216918945e-01</right_val></_></_>
        <_>
          <!-- tree 2 -->
          <_>
            <!-- root node -->
            <feature>
              <rects>
                <_>
                  7 17 8 2 -1.</_>
                <_>
                  7 17 4 1 2.</_>
                <_>
                  11 18 4 1 2.</_></rects>
              <tilted>0</tilted></feature>
            <threshold>5.3963780374033377e-05</threshold>
            <left_val>-8.6735671758651733e-01</left_val>
            <right_val>4.3235120177268982e-01</right_val></_></_>
        <_>
          <!-- tree 3 -->
          <_>
            <!-- root node -->
            <feature>
              <rects>
                <_>
                  19 4 2 4 -1.</_>
                <_>
                  19 6 2 2 2.</_></rects>
              <tilted>0</tilted></feature>
            <threshold>2.8301650309003890e-04</threshold>
            <left_val>-8.3755797147750854e-01</left_val>
            <right_val>3.3722200989723206e-01</right_val></_></_></trees>
      <stage_threshold>-8.3358341455459595e-01</stage_threshold>
      <parent>6</parent>
      <next>-1</next></_>
    <_>
      <!-- stage 8 -->
      <trees>
        <_>
          <!-- tree 0 -->
          <_>
            <!-- root node -->
            <feature>
              <rects>
                <_>
                  7 3 16 4 -1.</_>
                <_>
                  7 5 16 2 2.</_></rects>
              <tilted>0</tilted></feature>
            <threshold>1.8407359719276428e-02</threshold>
            <left_val>-6.6071432828903198e-01</left_val>
            <right_val>7.2549301385879517e-01</right_val></_></_>
        <_>
          <!-- tree 1 -->
          <_>
            <!-- root node -->
            <feature>
              <rects>
                <_>
                  9 13 13 6 -1.</_>
                <_>
                  9 15 13 2 3.</_></rects>
              <tilted>0</tilted></feature>
            <threshold>-4.7760739107616246e-05</threshold>
            <left_val>-9.8124200105667114e-01</left_val>
            <right_val>5.0683772563934326e-01</right_val></_></_></trees>
      <stage_threshold>-2.5574898719787598e-01</stage_threshold>
      <parent>7</parent>
      <next>-1</next></_>
    <_>
      <!-- stage 9 -->
      <trees>
        <_>
          <!-- tree 0 -->
          <_>
            <!-- root node -->
            <feature>
              <rects>
                <_>
                  8 18 13 12 -1.</_>
                <_>
                  8 22 13 4 3.</_></rects>
              <tilted>0</tilted></feature>
            <threshold>8.7034612894058228e-02</threshold>
            <left_val>-5.8730161190032959e-01</left_val>
            <right_val>8.4091281890869141e-01</right_val></_></_>
        <_>
          <!-- tree 1 -->
          <_>
            <!-- root node -->
            <feature>
              <rects>
                <_>
                  14 15 3 4 -1.</_>
                <_>
                  14 17 3 2 2.</_></rects>
              <tilted>0</tilted></feature>
            <threshold>-2.3132649948820472e-04</threshold>
            <left_val>-7.8487628698348999e-01</left_val>
            <right_val>4.2205730080604553e-01</right_val></_></_>
        <_>
          <!-- tree 2 -->
          <_>
            <!-- root node -->
            <feature>
              <rects>
                <_>
                  8 18 2 8 -1.</_>
                <_>
                  8 18 1 4 2.</_>
                <_>
                  9 22 1 4 2.</_></rects>
              <tilted>0</tilted></feature>
            <threshold>5.5326228903140873e-05</threshold>
            <left_val>-8.5435867309570312e-01</left_val>
            <right_val>4.7531709074974060e-01</right_val></_></_>
        <_>
          <!-- tree 3 -->
          <_>
            <!-- root node -->
            <feature>
              <rects>
                <_>
                  7 16 18 1 -1.</_>
                <_>
                  13 16 6 1 3.</_></rects>
              <tilted>0</tilted></feature>
            <threshold>4.6121478080749512e-03</threshold>
            <left_val>1.5737029910087585e-01</left_val>
            <right_val>-9.0451222658157349e-01</right_val></_></_>
        <_>
          <!-- tree 4 -->
          <_>
            <!-- root node -->
            <feature>
              <rects>
                <_>
                  3 15 4 3 -1.</_>
                <_>
                  3 16 4 1 3.</_></rects>
              <tilted>0</tilted></feature>
            <threshold>-1.1384380195522681e-04</threshold>
            <left_val>-9.8846977949142456e-01</left_val>
            <right_val>4.0471848845481873e-01</right_val></_></_></trees>
      <stage_threshold>-4.5751419663429260e-01</stage_threshold>
      <parent>8</parent>
      <next>-1</next></_>
    <_>
      <!-- stage 10 -->
      <trees>
        <_>
          <!-- tree 0 -->
          <_>
            <!-- root node -->
            <feature>
              <rects>
                <_>
                  3 15 13 3 -1.</_>
                <_>
                  3 16 13 1 3.</_></rects>
              <tilted>0</tilted></feature>
            <threshold>1.1008429573848844e-03</threshold>
            <left_val>5.9055119752883911e-01</left_val>
            <right_val>-8.6207288503646851e-01</right_val></_></_>
        <_>
          <!-- tree 1 -->
          <_>
            <!-- root node -->
            <feature>
              <rects>
                <_>
                  14 1 2 6 -1.</_>
                <_>
                  14 4 2 3 2.</_></rects>
              <tilted>0</tilted></feature>
            <threshold>5.2006267942488194e-03</threshold>
            <left_val>-7.6082551479339600e-01</left_val>
            <right_val>7.7272981405258179e-01</right_val></_></_></trees>
      <stage_threshold>-1.7027430236339569e-01</stage_threshold>
      <parent>9</parent>
      <next>-1</next></_></stages></haar>
</opencv_storage>
